113 10
e -0.0082453545 -0.10750011 0.5188662 0.549764 0.113744326 -0.36374652 -0.48106906 0.3144121 0.7114571 0.2214658
a 0.7092885 -0.23922692 0.38547295 0.59607303 0.38443896 -0.34056982 -0.39291114 0.06419523 0.7181378 -0.0043477467
o 0.368089 -0.34461924 0.38870817 0.35816488 0.28844374 -0.325851 -0.334129 0.05496526 0.80798554 0.003538805
s 0.49989724 -0.19965583 0.29369742 0.6325469 0.22105344 0.2705333 0.0821906 0.11459089 0.86023974 0.014468294
n 0.11168955 -0.06315854 0.4574185 0.46298188 0.1045268 0.035491094 0.536138 -0.07453041 0.98531836 0.30142903
r 0.19119854 -0.07811505 0.20961618 0.3981317 0.16259195 -0.22543748 0.4109438 0.2782872 1.0385256 0.1045991
i -0.08369936 -0.41526067 0.45499498 0.5501111 0.1619117 -0.34311837 0.1544946 -0.10136198 1.0097104 0.32943964
l 0.51188225 0.1261506 0.2805805 0.14038286 -0.06636637 -0.023921503 0.4019182 -0.042871207 1.1260276 0.20467617
d 0.17400934 0.087146364 0.40608406 0.22605023 0.054853216 0.2218673 0.18562533 0.22379139 0.76610184 0.25523815
t 0.23505104 -0.19337131 0.58463806 0.2870529 0.011137424 0.10254195 0.33857325 -0.010795907 0.7573486 0.2686965
c 0.3372888 -0.6906136 0.4716354 0.35221425 0.17047094 0.17022765 0.3845217 -0.051650412 0.7214576 0.30252236
u -0.0049910774 0.091471076 0.5812936 0.5888606 -0.21004912 -0.7302738 -0.31787345 0.45290858 0.79231477 0.5188814
p 0.4566435 -0.53519183 0.9244048 0.14338848 -0.8878464 0.44092068 -0.2372145 0.085901655 0.76747304 0.16288622
m 0.58765817 -0.6365542 0.31311172 0.35299957 0.028197795 0.24657427 0.20850474 0.0594227 0.8001939 0.21804112
, -0.6933919 -0.8950831 0.5583936 -1.3850738 1.0094489 0.5062178 -0.027187573 1.7915574 1.575818 0.47636715
_ 0.0773483 0.2675697 -0.107261874 -0.41205293 0.45094386 -0.16830392 -0.32447517 0.4365082 0.77978694 0.7611542
b 0.6855208 -0.50336105 0.44934776 0.085369386 -0.13061853 -0.136251 0.014757184 0.12949544 0.48807463 0.71418446
g 0.6561065 0.010560735 0.8321527 0.368873 0.038510144 0.27655777 0.089320414 -0.2572065 0.36564633 0.7699561
q 1.2361233 1.5902046 1.0144606 1.6261216 -0.16472033 1.6317538 0.34303552 1.4490044 0.41971013 -0.32254636
ó 0.13236438 0.08356434 1.4969498 0.3569081 0.7638103 0.056152664 -0.004969382 -0.6584049 0.7834319 -1.1026148
v 0.2096819 -0.09216349 0.8512037 0.3258888 0.1983099 0.26912314 0.13829066 -0.30555934 0.49032775 0.49103794
. -0.2600942 -0.3998171 1.2940935 -2.2696662 1.5022209 -0.74724567 -0.32245475 1.5974861 1.0380906 0.5066091
y 0.8835826 0.29722652 0.25507817 -0.39140472 0.08572197 -0.72595954 0.2531964 0.64169794 0.49874994 0.6086479
` -1.8337122 -0.6280629 4.8270802 1.5396373 3.692319 1.2102517 -1.2268965 2.3701377 0.09469012 1.804629
h 1.4534535 -0.36649194 0.6141763 -0.5160055 0.18486887 -0.56063426 0.6471882 0.16004916 0.38833526 0.12040053
f 0.40393472 -0.5433253 1.1747135 0.32424068 -0.13024108 0.38339832 0.39756197 -0.3430049 0.3864379 0.45189226
í 0.60960877 0.1599314 0.3852757 -0.08086402 0.109012164 -0.68331593 0.08419675 0.36775246 0.944098 -0.2962413
á 0.14121585 0.38164833 1.475873 0.02907956 0.11897478 -0.85176826 0.043174025 -0.10173799 0.7384021 -0.5720824
E 0.42474687 0.43937325 0.05546787 -0.16222918 0.5476426 0.40519178 -1.3346509 -0.33058208 1.2707782 0.14218356
z 0.42562792 -0.07515389 0.25088114 0.45765248 0.3071579 -0.1857287 0.22899427 0.041627683 0.7272637 0.71079785
j -0.015392442 0.32594192 0.5285488 0.2116854 0.20497234 -0.26440042 0.8807683 0.4864024 0.7195072 0.3191889
C 0.6778544 0.3282581 -0.0029856171 -0.19467029 0.8299256 0.26181635 -0.25246882 -0.16808924 0.76464117 0.6075298
é 0.10939489 0.83846164 1.1182647 0.18242697 0.3884325 -0.74031013 -0.122073255 0.06888165 0.8401357 -0.49482405
A 0.52703166 0.5208293 0.14787292 -0.02675889 0.62791914 -0.0850346 -0.53865325 -0.07092258 0.7959185 0.85633016
ñ 0.27306658 0.10599971 0.14732806 -0.684926 -1.6321148 0.073726825 0.458733 0.26609278 2.1265025 0.06635544
P 0.8057939 0.6983916 0.2940258 -0.2566487 0.08292494 0.12828976 -0.5754212 -0.0150796985 0.83015054 0.8447182
L 0.72792757 0.8339321 0.25392175 -0.4839509 0.084096916 -0.041026823 0.1104316 0.028464058 0.96712065 0.73050404
0 -0.009470604 -0.7430476 1.6947966 -2.1487994 0.81313956 0.705548 -0.64752525 2.246712 1.203703 -0.54065883
S 0.93338096 0.49606475 -0.10148984 0.030874029 1.001119 0.1783913 0.087906584 -0.19373594 0.87931144 0.58402
M 0.7649359 0.33990762 0.40835655 -0.090786435 0.40720263 0.10511779 -0.4844888 0.04491859 0.27251336 1.0850604
x -0.06284871 -0.3512484 0.052750964 0.5552626 0.077249594 0.67191994 0.25512418 -0.09907601 1.3580197 0.23261862
- -0.44124672 -0.035571773 -0.19410875 -1.2361417 0.80619675 -0.44805232 -0.23256597 0.44592306 1.1395807 1.0802693
ú 0.5227601 0.43389794 1.0852368 0.06374502 0.7089811 -0.8450688 -0.09285651 -0.46335402 1.0536357 -0.9592302
1 -0.012090215 -0.5371832 0.7814553 -1.1596872 0.65904874 0.6322175 -0.36398137 2.1980078 0.7075968 0.48248717
B 0.9544071 0.48632175 0.6123877 -0.3443225 0.5334802 -0.13251366 -0.3917989 -0.13992558 0.23204178 0.82919663
G 0.82359487 0.43413687 0.41269684 -0.04152349 0.7229982 0.23488656 0.044948667 -0.07333879 0.39661357 0.54691607
T 0.29891554 0.45855144 0.10426439 -0.37404403 0.77547747 0.16098581 -0.18317226 -0.17870508 0.77788186 0.90809846
R 0.7144197 0.68843526 0.017642152 -0.17659104 0.7455708 0.1051235 -0.15625937 -0.09585409 0.95638114 0.66210794
2 0.1715006 -0.4888562 0.6435441 -1.5259432 0.62382144 0.7444681 -0.6411 1.8004043 0.9746449 0.043368995
D 0.5011704 0.5819364 -0.01584693 -0.016142273 0.7885779 0.20969257 -0.23486812 -0.13124406 0.92562616 0.64316386
N 0.7099583 0.6410509 0.17027648 -0.4737521 1.2694441 0.44309705 0.15197207 -0.61221564 0.891514 0.59513366
9 -0.029517218 -0.6580828 0.5123009 -0.6308739 1.3068689 0.6259991 0.027586024 2.9248154 0.8063505 0.48927894
I 0.08502797 0.6972726 0.36804435 -0.23638484 1.0593472 0.10447468 -0.58214915 -0.47152883 0.8674067 0.86764604
F 0.41958788 0.508094 0.34018472 -0.3169015 0.5997922 0.33685282 -0.28862628 -0.32301494 0.66761833 0.8417038
U -0.76072425 0.9024769 0.52881193 -0.3821311 0.33690757 0.7016503 -0.6752158 -0.8451667 1.694568 0.86483735
J 0.72435105 0.779406 0.118009225 0.3438938 0.29551437 -0.075493835 -0.055899348 0.44123363 0.6216198 1.2562753
( 0.020536622 -0.040299766 -0.011554782 -0.021711743 -0.026403442 0.047362465 -0.020937119 -0.0071447846 -0.031885613 -0.028477063
) 0.043643165 -0.016029874 -0.016750297 -0.024547689 -0.005036281 0.013501563 -0.015698928 -0.041952107 -0.04786397 -0.03540315
O 0.38759804 0.7574166 0.27527016 -0.65427387 0.68683213 -0.10750716 -0.5990581 -0.5201745 1.3497379 0.82371545
V 0.6526824 0.56606907 0.367358 -0.41227138 0.4972946 0.14749016 -0.42000434 -0.15705599 0.58559334 0.6977061
5 -0.22001848 -0.996893 0.92792624 -1.4704721 1.0792322 0.7546921 -0.3922717 1.8805937 0.98325753 -0.090525284
3 -0.21287824 -0.74526376 0.5734702 -1.5478855 1.2494445 0.94712114 -0.28398088 1.4363143 1.060317 0.35625738
k 0.85639215 0.4822148 0.59689945 -0.29552388 1.0531394 -0.37911737 0.13155496 -0.20587727 0.2304812 0.8207773
H 1.0419666 0.55537635 0.1470146 -0.29175243 0.7262967 -0.104428165 -0.07516335 0.26487792 0.37304217 0.6619472
4 -0.31503695 -0.7425922 0.88688076 -1.4863113 1.2259535 0.926567 -0.27629355 1.7881079 0.95634824 0.21039297
8 -0.11681733 -1.0599138 0.84877 -1.2432356 1.1702123 0.9588733 -0.31124878 2.1416411 0.93401307 0.16493307
6 -0.10870929 -0.9092784 0.730192 -1.2919066 1.0949115 0.8811342 -0.37738553 1.9466621 0.8833553 0.2628488
7 -0.01868957 -0.79144925 0.69343084 -1.1758164 1.1551385 0.837044 -0.33308452 2.0938826 0.8538054 0.24992132
: -0.26165333 -0.36198854 0.64443606 -1.7103779 1.0766685 0.2860436 -0.41900223 1.5790237 1.0056695 0.6849828
Y 0.4054308 1.1782264 0.6483472 0.1558807 0.96526986 -0.40291885 0.19390585 -0.06929207 0.4021586 0.9956664
K 0.9330626 0.3264672 0.5957703 -0.10000993 1.2780107 -0.3847456 0.2941996 0.033167884 -0.02275477 0.76783085
% 0.03717631 0.028192692 0.002259397 0.034549214 0.012437811 -0.01219241 -0.04132939 0.029397829 -0.03898785 -0.0043357667
? 0.018718742 0.016330231 0.040201217 0.0033527112 -0.044917073 0.034839015 -0.016875833 -0.036584925 -0.018475324 0.027797025
w 1.0975711 0.33792782 0.4036537 -0.80641043 1.1452305 -0.5837145 0.12894364 0.07239907 0.14992337 0.8688293
Z 0.8970612 1.1487925 0.9662215 -0.36902675 1.0515167 -0.24480397 0.24445318 -0.5413628 0.41921958 0.8694419
' -0.037277337 0.86597383 -0.09964911 -0.61935765 0.67392224 -0.23075947 -0.46282622 0.6418292 0.8177982 0.889008
W 0.85915065 0.061562292 0.45186353 -0.5660874 1.2222965 -0.7746284 0.017807456 0.25106025 0.022477014 0.48523122
; 0.013578779 -0.023868082 -0.045760896 0.033852395 0.029183825 -0.017757932 0.04533297 0.007227026 0.004102049 -0.048815057
Q 0.69315034 1.2057112 0.5755653 0.91917914 0.58372617 1.0462928 -0.13775618 0.1999225 0.23203035 1.3686136
¿ 0.019653184 -0.019959832 0.17981789 0.0064844177 0.17560805 0.038663685 -0.020695394 0.09806394 0.14648058 0.05743172
X -0.41170672 0.99110836 0.48193178 -0.49905744 1.5180047 0.34798843 -0.1365957 -0.31880632 0.7137835 1.1257871
à 0.4382426 0.65982056 0.36251566 -0.35038662 0.7094957 -0.3838659 -0.34620848 -0.18754587 0.9840391 0.4356482
ç 0.8706915 0.647008 0.35307446 -0.50468594 0.6320058 -0.69759643 0.15857549 0.09712747 0.6204557 1.2289946
! 0.040929336 -0.02204264 0.01719067 -0.018523261 0.007909663 0.01327525 0.04759582 -0.017716963 -0.031269785 -0.029962987
ü 0.40669614 0.45759627 0.49982047 0.14051777 0.8661174 -0.63442594 -0.22081204 -0.19839221 0.5421398 0.55984753
¡ 0.17551146 0.1330901 0.2510597 0.007751507 0.41224313 -0.04202176 -0.061615687 0.21386696 0.4792403 0.32641482
è 0.29460984 0.6875603 0.38810942 -0.16791144 0.77788436 -0.32486948 -0.33594006 -0.13333808 0.78011274 0.51894677
/ 0.090412326 0.17975104 -0.15191653 -1.0334581 0.95292974 -0.43241903 -0.43933225 0.93850446 0.67040545 1.013979
É 0.42207283 0.55036783 0.23978083 -0.2645552 0.7532041 -0.17148377 -0.43384567 -0.23066913 0.92187685 0.69614124
Á 0.24695443 0.5795594 0.3905582 -0.12317248 0.9325421 -0.41173822 -0.24154983 -0.03217163 0.69272596 0.60855395
Ó 0.42030212 0.94909734 0.39635107 -0.6067974 1.4379103 0.022049075 -0.5829378 -0.36479703 1.4843484 1.4027915
ò 0.27240366 0.46424174 0.1794075 -0.3191579 0.6192768 -0.4046273 -0.2942399 0.11568057 0.82056624 0.6709074
+ 0.19217308 0.52151126 0.3114053 -0.47919104 0.9463644 -0.042803813 -0.3537885 -0.075217515 0.9829046 0.95642614
ï 0.3792513 0.19692941 0.33089727 -0.09577834 0.59466517 -0.10304357 -0.24083525 0.2326442 0.5502934 0.508529
Í 0.39007953 0.73876846 0.26793653 -0.59498876 1.0653787 -0.018410757 -0.4415056 -0.157229 1.1149379 0.97350657
ö 0.3375076 0.13870905 0.34105432 -0.15526426 0.7359959 -0.2297171 -0.1622839 0.14722946 0.5590212 0.58437127
Ñ 0.29494923 0.4455395 0.3321596 -0.34604925 0.7267281 0.06694988 -0.2982406 0.014163721 0.79070145 0.63107306
& 0.008012757 0.031763878 0.04694755 -0.017914522 0.023359453 0.017362675 -0.032273006 0.031118697 -0.018839754 0.041080855
º -0.13871223 -0.1263628 0.23652539 -0.6596344 0.5217603 0.15441984 -0.23952974 0.6655419 0.49818373 0.38081565
Ú 0.21666332 0.19243762 0.2898976 -0.1430714 0.40292314 0.018766345 -0.15816416 0.17840724 0.5621274 0.3253141
ä 0.2858637 0.102283634 0.33995333 -0.1513077 0.44878593 -0.112239234 -0.056549955 0.23822457 0.42388275 0.36143816
= -0.007191344 0.055681046 0.19137461 -0.69962865 0.5871612 0.11148084 -0.24648389 0.5548787 0.48025465 0.35376492
Ò 0.16900997 0.061139986 0.21014032 -0.054398168 0.2643717 -0.0041690073 -0.09858401 0.16539645 0.3460151 0.15157272
ô 0.32928765 0.11315756 0.25418404 -0.23538496 0.5074263 -0.046044275 -0.18869293 0.17315213 0.49959525 0.44441053
´ 0.1863377 0.14756264 0.25115284 -0.091514975 0.25170043 0.02437471 -0.052419536 0.20373805 0.4017977 0.27429968
ù 0.165726 0.114623785 0.24186061 -0.09108885 0.19488065 0.054034725 -0.11074623 0.20842963 0.40199375 0.2575838
@ 0.039840464 -0.03846846 0.024415514 -0.037262198 -0.01699032 -0.0046343086 -0.024680989 0.018141778 -0.029092215 -0.014789304
Ç 0.21205978 0.19240664 0.23081662 -0.19964641 0.33435813 -0.02350958 -0.14163181 0.06613328 0.43011197 0.3273753
| -0.042085215 -0.026623208 -0.02350385 -0.005894816 -0.009795829 0.03269354 -0.024634484 0.002008662 0.04380071 0.026920827
° 0.019839993 0.05518973 0.21112543 -0.20619671 0.21126935 0.0780004 -0.06786976 0.24161872 0.24919644 0.16772811
* 0.027547006 -0.007696591 0.011913313 -0.045559797 0.030876623 -0.0005401814 0.0499146 0.04599195 -0.045141164 -0.0013775814
ª 0.09288609 0.029718982 0.14280218 -0.20980717 0.2506404 0.040267136 -0.102598086 0.23469843 0.3728164 0.19619332
î 0.16492458 0.019960534 0.21802334 -0.052824106 0.27692166 0.048910715 0.022880448 0.12979892 0.31414798 0.1809999
